digraph Tree {
node [shape=box, style="filled, rounded", color="black", fontname=helvetica] ;
edge [fontname=helvetica] ;
0 [label="Minimum temperature (°C) <= 12.6\nentropy = 0.703\nsamples = 194\nvalue = [33, 160, 1]", fillcolor="#63ea9c"] ;
1 [label="Minimum temperature (°C) <= 2.5\nentropy = 0.275\nsamples = 123\nvalue = [4, 118, 1]", fillcolor="#41e686"] ;
0 -> 1 [labeldistance=2.5, labelangle=45, headlabel="True"] ;
2 [label="Minimum temperature (°C) <= 1.85\nentropy = 1.0\nsamples = 2\nvalue = [0, 1, 1]", fillcolor="#ffffff"] ;
1 -> 2 ;
3 [label="entropy = 0.0\nsamples = 1\nvalue = [0, 1, 0]", fillcolor="#39e581"] ;
2 -> 3 ;
4 [label="entropy = 0.0\nsamples = 1\nvalue = [0, 0, 1]", fillcolor="#8139e5"] ;
2 -> 4 ;
5 [label="Minimum temperature (°C) <= 7.7\nentropy = 0.21\nsamples = 121\nvalue = [4, 117, 0]", fillcolor="#40e685"] ;
1 -> 5 ;
6 [label="entropy = 0.0\nsamples = 42\nvalue = [0, 42, 0]", fillcolor="#39e581"] ;
5 -> 6 ;
7 [label="entropy = 0.289\nsamples = 79\nvalue = [4, 75, 0]", fillcolor="#44e688"] ;
5 -> 7 ;
8 [label="Minimum temperature (°C) <= 13.55\nentropy = 0.976\nsamples = 71\nvalue = [29, 42, 0]", fillcolor="#c2f7d8"] ;
0 -> 8 [labeldistance=2.5, labelangle=-45, headlabel="False"] ;
9 [label="Minimum temperature (°C) <= 13.35\nentropy = 0.837\nsamples = 15\nvalue = [4, 11, 0]", fillcolor="#81eeaf"] ;
8 -> 9 ;
10 [label="entropy = 0.918\nsamples = 12\nvalue = [4, 8, 0]", fillcolor="#9cf2c0"] ;
9 -> 10 ;
11 [label="entropy = 0.0\nsamples = 3\nvalue = [0, 3, 0]", fillcolor="#39e581"] ;
9 -> 11 ;
12 [label="Minimum temperature (°C) <= 13.65\nentropy = 0.992\nsamples = 56\nvalue = [25, 31, 0]", fillcolor="#d9fae7"] ;
8 -> 12 ;
13 [label="entropy = 0.0\nsamples = 1\nvalue = [1, 0, 0]", fillcolor="#e58139"] ;
12 -> 13 ;
14 [label="entropy = 0.988\nsamples = 55\nvalue = [24, 31, 0]", fillcolor="#d2f9e3"] ;
12 -> 14 ;
}