digraph Tree {
node [shape=box, style="filled, rounded", color="black", fontname=helvetica] ;
edge [fontname=helvetica] ;
0 [label="TOTALDEMAND <= 6017.23\nentropy = 1.969\nsamples = 194\nvalue = [33, 60, 52, 49]", fillcolor="#f5fef4"] ;
1 [label="TOTALDEMAND <= 5354.67\nentropy = 1.607\nsamples = 83\nvalue = [33, 37, 9, 4]", fillcolor="#f0fdef"] ;
0 -> 1 [labeldistance=2.5, labelangle=45, headlabel="True"] ;
2 [label="Minimum temperature (°C) <= 13.75\nentropy = 0.949\nsamples = 38\nvalue = [24, 14, 0, 0]", fillcolor="#f4caac"] ;
1 -> 2 ;
3 [label="Sunshine (hours) <= 8.2\nentropy = 0.896\nsamples = 16\nvalue = [5, 11, 0, 0]", fillcolor="#9bf193"] ;
2 -> 3 ;
4 [label="TOTALDEMAND <= 4716.99\nentropy = 0.469\nsamples = 10\nvalue = [1, 9, 0, 0]", fillcolor="#5be84f"] ;
3 -> 4 ;
5 [label="entropy = 0.0\nsamples = 1\nvalue = [1, 0, 0, 0]", fillcolor="#e58139"] ;
4 -> 5 ;
6 [label="entropy = 0.0\nsamples = 9\nvalue = [0, 9, 0, 0]", fillcolor="#47e539"] ;
4 -> 6 ;
7 [label="3pm relative humidity (%) <= 47.0\nentropy = 0.918\nsamples = 6\nvalue = [4, 2, 0, 0]", fillcolor="#f2c09c"] ;
3 -> 7 ;
8 [label="entropy = 0.0\nsamples = 3\nvalue = [3, 0, 0, 0]", fillcolor="#e58139"] ;
7 -> 8 ;
9 [label="entropy = 0.918\nsamples = 3\nvalue = [1, 2, 0, 0]", fillcolor="#a3f29c"] ;
7 -> 9 ;
10 [label="9am relative humidity (%) <= 74.5\nentropy = 0.575\nsamples = 22\nvalue = [19, 3, 0, 0]", fillcolor="#e99558"] ;
2 -> 10 ;
11 [label="entropy = 0.0\nsamples = 13\nvalue = [13, 0, 0, 0]", fillcolor="#e58139"] ;
10 -> 11 ;
12 [label="TOTALDEMAND <= 5033.42\nentropy = 0.918\nsamples = 9\nvalue = [6, 3, 0, 0]", fillcolor="#f2c09c"] ;
10 -> 12 ;
13 [label="entropy = 0.592\nsamples = 7\nvalue = [6, 1, 0, 0]", fillcolor="#e9965a"] ;
12 -> 13 ;
14 [label="entropy = 0.0\nsamples = 2\nvalue = [0, 2, 0, 0]", fillcolor="#47e539"] ;
12 -> 14 ;
15 [label="Evaporation (mm) <= 3.8\nentropy = 1.734\nsamples = 45\nvalue = [9, 23, 9, 4]", fillcolor="#b7f5b2"] ;
1 -> 15 ;
16 [label="Speed of maximum wind gust (km/h) <= 32.0\nentropy = 1.805\nsamples = 23\nvalue = [2, 9, 8, 4]", fillcolor="#f3fdf2"] ;
15 -> 16 ;
17 [label="Evaporation (mm) <= 2.5\nentropy = 1.64\nsamples = 15\nvalue = [1, 2, 8, 4]", fillcolor="#b7dbf6"] ;
16 -> 17 ;
18 [label="entropy = 1.918\nsamples = 6\nvalue = [1, 2, 1, 2]", fillcolor="#ffffff"] ;
17 -> 18 ;
19 [label="entropy = 0.764\nsamples = 9\nvalue = [0, 0, 7, 2]", fillcolor="#72b9ec"] ;
17 -> 19 ;
20 [label="Evaporation (mm) <= 0.1\nentropy = 0.544\nsamples = 8\nvalue = [1, 7, 0, 0]", fillcolor="#61e955"] ;
16 -> 20 ;
21 [label="entropy = 0.0\nsamples = 1\nvalue = [1, 0, 0, 0]", fillcolor="#e58139"] ;
20 -> 21 ;
22 [label="entropy = 0.0\nsamples = 7\nvalue = [0, 7, 0, 0]", fillcolor="#47e539"] ;
20 -> 22 ;
23 [label="9am cloud amount (oktas) <= 6.0\nentropy = 1.143\nsamples = 22\nvalue = [7, 14, 1, 0]", fillcolor="#a9f3a3"] ;
15 -> 23 ;
24 [label="9am relative humidity (%) <= 49.0\nentropy = 0.503\nsamples = 9\nvalue = [0, 8, 1, 0]", fillcolor="#5ee852"] ;
23 -> 24 ;
25 [label="entropy = 0.0\nsamples = 1\nvalue = [0, 0, 1, 0]", fillcolor="#399de5"] ;
24 -> 25 ;
26 [label="entropy = 0.0\nsamples = 8\nvalue = [0, 8, 0, 0]", fillcolor="#47e539"] ;
24 -> 26 ;
27 [label="Speed of maximum wind gust (km/h) <= 37.0\nentropy = 0.996\nsamples = 13\nvalue = [7, 6, 0, 0]", fillcolor="#fbede3"] ;
23 -> 27 ;
28 [label="entropy = 0.918\nsamples = 9\nvalue = [3, 6, 0, 0]", fillcolor="#a3f29c"] ;
27 -> 28 ;
29 [label="entropy = 0.0\nsamples = 4\nvalue = [4, 0, 0, 0]", fillcolor="#e58139"] ;
27 -> 29 ;
30 [label="Evaporation (mm) <= 6.5\nentropy = 1.529\nsamples = 111\nvalue = [0, 23, 43, 45]", fillcolor="#fef9fe"] ;
0 -> 30 [labeldistance=2.5, labelangle=-45, headlabel="False"] ;
31 [label="TOTALDEMAND <= 7110.88\nentropy = 1.432\nsamples = 96\nvalue = [0, 13, 38, 45]", fillcolor="#fae7fc"] ;
30 -> 31 ;
32 [label="Speed of maximum wind gust (km/h) <= 25.0\nentropy = 1.45\nsamples = 82\nvalue = [0, 12, 38, 32]", fillcolor="#e7f3fc"] ;
31 -> 32 ;
33 [label="TOTALDEMAND <= 6386.005\nentropy = 0.868\nsamples = 16\nvalue = [0, 1, 2, 13]", fillcolor="#e063eb"] ;
32 -> 33 ;
34 [label="entropy = 0.918\nsamples = 3\nvalue = [0, 1, 2, 0]", fillcolor="#9ccef2"] ;
33 -> 34 ;
35 [label="entropy = 0.0\nsamples = 13\nvalue = [0, 0, 0, 13]", fillcolor="#d739e5"] ;
33 -> 35 ;
36 [label="Speed of maximum wind gust (km/h) <= 42.0\nentropy = 1.425\nsamples = 66\nvalue = [0, 11, 36, 19]", fillcolor="#b7dcf6"] ;
32 -> 36 ;
37 [label="entropy = 1.477\nsamples = 48\nvalue = [0, 8, 22, 18]", fillcolor="#e5f2fc"] ;
36 -> 37 ;
38 [label="entropy = 0.944\nsamples = 18\nvalue = [0, 3, 14, 1]", fillcolor="#6eb7ec"] ;
36 -> 38 ;
39 [label="3pm relative humidity (%) <= 54.0\nentropy = 0.371\nsamples = 14\nvalue = [0, 1, 0, 13]", fillcolor="#da48e7"] ;
31 -> 39 ;
40 [label="3pm MSL pressure (hPa) <= 1019.35\nentropy = 1.0\nsamples = 2\nvalue = [0, 1, 0, 1]", fillcolor="#ffffff"] ;
39 -> 40 ;
41 [label="entropy = 0.0\nsamples = 1\nvalue = [0, 1, 0, 0]", fillcolor="#47e539"] ;
40 -> 41 ;
42 [label="entropy = 0.0\nsamples = 1\nvalue = [0, 0, 0, 1]", fillcolor="#d739e5"] ;
40 -> 42 ;
43 [label="entropy = 0.0\nsamples = 12\nvalue = [0, 0, 0, 12]", fillcolor="#d739e5"] ;
39 -> 43 ;
44 [label="9am MSL pressure (hPa) <= 1011.65\nentropy = 0.918\nsamples = 15\nvalue = [0, 10, 5, 0]", fillcolor="#a3f29c"] ;
30 -> 44 ;
45 [label="9am cloud amount (oktas) <= 5.5\nentropy = 0.722\nsamples = 5\nvalue = [0, 1, 4, 0]", fillcolor="#6ab6ec"] ;
44 -> 45 ;
46 [label="entropy = 0.0\nsamples = 4\nvalue = [0, 0, 4, 0]", fillcolor="#399de5"] ;
45 -> 46 ;
47 [label="entropy = 0.0\nsamples = 1\nvalue = [0, 1, 0, 0]", fillcolor="#47e539"] ;
45 -> 47 ;
48 [label="TOTALDEMAND <= 7656.415\nentropy = 0.469\nsamples = 10\nvalue = [0, 9, 1, 0]", fillcolor="#5be84f"] ;
44 -> 48 ;
49 [label="entropy = 0.0\nsamples = 8\nvalue = [0, 8, 0, 0]", fillcolor="#47e539"] ;
48 -> 49 ;
50 [label="3pm cloud amount (oktas) <= 5.0\nentropy = 1.0\nsamples = 2\nvalue = [0, 1, 1, 0]", fillcolor="#ffffff"] ;
48 -> 50 ;
51 [label="entropy = 0.0\nsamples = 1\nvalue = [0, 0, 1, 0]", fillcolor="#399de5"] ;
50 -> 51 ;
52 [label="entropy = 0.0\nsamples = 1\nvalue = [0, 1, 0, 0]", fillcolor="#47e539"] ;
50 -> 52 ;
}